afraid 0.20393 0.17364 0.15057 -0.39759 -1.0632 0.64762 -1.1289 0.013639 0.98327 -0.29774 0.31402 0.68216 0.47155 -0.24533 -0.23146 -0.13751 -0.38578 0.33462 -0.27214 0.61229 0.14034 0.60944 0.096643 -0.59545 -0.14569 0.5556 -0.12703 -0.5279 0.82094 0.35821 0.030401 0.15756 0.2375 -0.038795 0.39278 0.038408 0.073899 -0.2128 0.7069 -0.14656 -0.82718 0.34497 -0.075549 -0.72855 -0.26207 -0.19762 0.51673 0.28403 -0.21211 -0.9457 0.24384 -0.25281 -0.024559 0.6273 0.078522 -1.1289 0.57272 0.26828 0.40676 -0.14544 -0.055878 0.67879 -0.88211 -0.23226 0.70475 0.014326 0.84506 0.37219 -0.41306 -0.12706 -0.0067325 -0.9117 -0.21907 -0.37664 -0.25059 0.34622 0.043274 0.22971 -0.30153 -0.082964 0.25688 -0.20004 -0.85058 0.39113 -1.3968 -0.43869 -0.26451 0.20322 -0.50828 -0.33929 0.28478 -0.31325 0.6403 -0.12817 -0.74794 0.13856 0.016502 0.15267 -0.14332 0.12095
alive -0.0055056 0.46922 0.50625 -0.54681 0.44234 0.43407 0.46368 -0.42763 0.25518 -0.5681 0.6179 1.096 0.39768 0.0085129 -0.54301 -0.31179 0.034755 0.036083 -0.23184 0.63302 0.015993 0.34448 0.30563 -0.076901 0.06073 0.51456 -0.33293 -0.31403 0.49729 0.5381 -0.064561 -0.27616 -0.37648 0.32291 0.26295 -0.3864 -0.53974 0.094105 0.075349 -0.64581 -0.41205 0.077319 0.43987 -0.31318 0.12589 -0.37135 0.079645 0.59805 -0.020144 -0.70633 -0.13498 -0.35867 0.21334 1.456 0.32921 -1.7198 -0.26847 -0.20439 0.54605 0.37685 -0.21553 1.1753 -0.44294 -0.46555 0.32563 0.49238 0.41742 0.34644 -0.6613 -0.45228 0.33158 -0.299 0.1733 0.06787 0.46265 0.6319 -0.074758 -0.68056 -0.68305 0.01914 -0.11062 0.3779 -0.37918 0.27693 -0.71047 -0.13772 -0.16078 0.097816 -0.75529 0.60048 0.52741 -0.29522 0.83148 0.50004 -0.94343 -0.19389 0.03075 -0.13851 -0.037931 -0.15753
angry 0.3184 0.11648 0.059322 -0.81911 -0.94571 1.5493 -0.70852 -0.029751 0.65884 -0.39851 -0.47536 -0.17905 0.089555 -0.47216 -0.19649 0.11601 -1.1612 -0.40354 -0.2037 0.30641 1.2521 -0.07105 0.18088 -0.098937 0.63272 -0.20717 -0.36056 0.85019 0.8551 0.50512 0.33687 0.62048 0.38189 -0.072412 -0.28978 -0.42217 0.14285 -0.15332 0.55091 0.20756 -0.91697 -0.50022 0.31758 -0.40305 0.33269 -0.37892 -0.11585 0.89314 0.49272 -0.21729 0.48833 -0.55194 0.41929 0.51241 -0.33234 -1.2202 0.3069 0.15654 0.72621 -0.2122 0.48652 0.52029 -0.26854 -0.28969 0.68152 -0.35739 0.86354 0.35424 0.19181 -0.3253 -0.038313 -0.21287 -0.62027 -0.78467 -0.25775 1.1114 0.73956 0.10879 -0.8725 -0.084313 1.1272 -0.42483 -0.56442 -0.084668 -1.3418 -0.6214 -0.49183 0.23392 -0.60394 -0.69377 0.58116 -0.29267 -0.56326 0.17184 -0.31877 0.11736 -0.71732 0.96815 -0.065527 0.28264
archived -0.4453 0.18871 -0.004131 -0.52321 0.78524 0.79532 0.18801 0.29617 0.49248 -0.2756 1.023 0.43779 0.45106 -0.31647 0.06605 0.073487 1.2136 0.08603 0.40029 -0.30807 -0.59563 0.059715 0.37775 0.41879 -0.080715 -1.2372 0.83505 0.32953 -0.11688 0.34959 0.18682 -0.012809 -0.6471 0.99689 -0.21164 0.039089 -0.79703 -0.44734 -0.98202 -0.27413 0.29714 -0.17942 -0.997 0.28258 -0.10327 -0.22061 -0.0081703 -0.43415 0.40137 -0.13548 1.1434 0.028725 0.64089 -0.49768 0.19537 0.22209 0.090766 -0.43647 0.17085 -0.53164 -0.63586 0.74431 -0.039422 -0.36042 0.36185 -0.14774 0.60425 0.34671 0.32536 0.068565 0.26468 0.31544 1.1632 -0.050443 -0.17524 0.29245 0.12423 -0.14537 -0.35045 -0.36095 -0.17493 0.077142 0.16851 0.17656 -0.37692 0.29213 0.59074 0.29368 -0.47069 0.11436 -0.64448 0.4506 0.34392 0.23559 0.34396 -0.74943 0.038331 -0.19681 0.38048 0.34899
begin -0.0069454 -0.0062469 -0.48311 0.41882 -0.056372 -0.30911 0.01296 1.0834 -0.22002 -0.26035 0.026099 0.038914 0.25655 0.15687 -0.085479 -0.79053 0.24899 0.50888 -0.065775 -0.027805 -0.40364 -0.40028 0.18304 0.24574 -0.22983 0.20155 -0.12303 -0.30521 0.70472 0.082326 -0.78861 -0.20706 -0.22613 -0.65368 -0.11042 -0.24053 0.068949 -0.61956 0.28464 -0.033899 -0.38652 -0.23574 -0.28306 -0.11457 -0.21721 -0.23316 -0.064925 -0.64685 0.28473 -1.2279 0.41605 -0.43042 -0.25078 1.2155 -0.19927 -1.7563 -0.29978 -0.37159 1.8245 0.5141 -0.59058 1.1665 0.31153 -0.68704 0.96062 0.65728 -0.12071 0.62855 -0.60873 -0.65923 0.26038 -0.69448 -1.014 -0.61349 -0.45778 0.1424 -0.38013 0.31758 -0.65871 -0.3707 0.22093 -0.34523 -0.55206 0.12545 -0.94518 0.09467 0.48362 0.13249 -0.30419 0.082742 -0.08596 0.38417 -0.26561 -0.1866 -0.5544 0.07472 0.3335 -0.09669 0.92709 0.41914
believe 0.11222 0.56904 0.28878 -0.20021 -0.70595 -0.36709 -0.29205 -0.33471 0.41836 -0.37621 -0.0034136 0.58827 0.57509 -0.21021 -0.31846 -0.31893 -0.065667 0.45849 -0.96593 0.71374 0.37646 -0.25991 -0.24335 -0.66833 -0.57006 0.040969 0.27691 -0.74918 0.068421 -0.12054 0.27375 0.55 -0.20913 0.083317 0.44739 -0.12839 0.095461 0.375 0.54637 -0.26507 -1.1307 0.017862 0.60796 -0.36376 -0.5341 -0.66136 0.57043 -0.23547 -0.55448 -1.2421 0.48459 0.13234 0.10349 0.73333 -0.17041 -2.0957 0.1587 -0.24497 1.1825 0.38162 -0.26459 0.55455 -0.21929 -0.4039 0.66783 0.48885 0.48985 0.58109 -0.4766 -0.23931 0.47729 -0.23929 -0.083233 -0.28148 -0.22676 -0.2593 0.31279 -0.30003 -0.93233 -0.08482 0.37397 0.17725 -0.93335 0.040175 -1.5557 -0.54616 -0.10039 0.14414 -0.40451 -0.20001 0.19567 -0.53087 -0.29901 -0.36608 -0.46414 -0.33032 -0.37266 -0.54456 0.090487 0.24171
birth 0.7498 -0.076617 -0.13952 0.47021 -0.35482 0.1157 -0.4914 -0.10619 -0.16946 0.029007 -0.73285 0.45907 0.36396 0.59163 1.0226 -0.46768 0.92097 -0.016707 -0.073454 0.16269 -0.381 -0.87879 0.23569 1.0529 0.10114 0.19261 -0.25423 -1.1534 0.23579 0.61506 0.22499 0.069247 0.86995 0.17185 -0.068074 -0.48298 -0.13293 0.48264 -0.42423 -0.17082 -0.10973 0.42151 0.10803 -0.44977 -0.17453 -0.6749 0.32669 -0.012381 -0.088107 -0.46343 0.42593 -0.10242 0.1555 0.8127 -0.064208 -1.6797 -0.63999 -0.13213 0.79068 0.28458 0.2137 0.9363 0.51974 -0.41323 0.47837 0.46982 -0.38207 -0.58349 0.30995 -0.73665 -0.50182 0.36421 -0.01257 0.47419 0.40512 0.52404 -0.14687 -1.0674 -1.1564 -0.93233 -0.050668 0.16919 0.50462 0.21671 -1.5502 -0.48176 0.56689 -0.70423 -0.010506 -0.1154 0.083771 0.17411 0.64075 0.39978 -1.0752 -0.56627 -0.098718 -0.47463 -0.25793 -0.91383
bookmark -0.7527 0.2841 -0.35493 -1.0696 0.3373 -0.31781 -0.35427 -0.34001 0.94706 0.059361 0.2083 0.17385 -0.18992 -0.47411 -0.18206 0.57304 0.79242 -0.66239 -0.12124 0.0073709 -0.82231 -0.21413 -0.29056 0.088324 0.16094 -0.35359 -0.16388 0.69448 0.58514 -0.68284 0.23746 0.14743 0.22451 0.52731 0.3567 0.53041 -0.60699 -0.44195 0.47317 -0.22266 1.2182 0.20479 0.40964 -0.35154 -0.32335 0.70336 0.22715 0.15445 -0.42154 -0.12266 0.52438 0.091311 -0.26002 -0.0099688 -0.74459 0.093458 0.20871 0.20196 0.32889 -0.22589 -0.26904 -0.021323 0.083485 -0.06294 0.49836 0.5063 0.61842 0.17191 0.27574 -0.73972 -0.21373 0.052625 0.53274 -0.26286 -0.50107 -0.12111 -0.047503 -0.42317 0.34885 0.13239 -0.76747 -0.19353 0.2024 -0.2196 0.30101 0.21242 -0.077086 0.26613 -0.46964 0.20179 -0.10392 0.33077 0.88328 -0.39355 0.51886 -0.60359 0.20687 -0.11022 -0.073265 0.64109
break 0.18775 -0.15605 -0.23366 0.018699 -0.19427 0.30586 0.14723 0.39522 -0.27784 -0.045686 -0.066298 0.21471 -0.3217 0.47132 -0.045505 0.19755 -0.11362 0.050976 -0.63503 -0.045304 0.77929 -0.14976 0.2798 0.0022373 0.85722 -0.15014 -0.82157 -0.65392 0.69347 -0.58573 -0.63818 0.41182 -0.023953 -0.37597 0.02113 -0.44641 -0.25901 -0.41059 -0.10512 0.060099 -0.2735 -0.22428 0.099387 -0.25834 0.28098 -0.12577 -0.075202 -0.24717 0.32506 -0.90843 0.041718 -0.023852 -0.077693 0.98017 0.5435 -2.4664 -0.29764 0.028321 1.6879 1.1879 -0.25132 0.21379 -0.4314 0.10315 0.16993 0.30197 0.55079 0.0037329 -0.24628 -0.79942 -0.032217 0.15049 -0.09691 -0.22591 -0.40997 -0.099111 -0.63102 -0.76408 -0.11366 0.30969 0.52908 -0.29017 -0.60534 -0.0367 -1.3003 -0.069123 -0.11414 0.6845 -0.21162 0.16657 -0.17139 0.17196 -0.48822 -0.26397 -0.45904 -0.51818 0.68776 0.39626 -0.027088 0.34377
broken -0.084564 0.35346 -0.16379 -0.18409 0.0036931 0.50674 -0.052212 0.409 0.45315 -0.041283 0.18745 0.38732 1.3659 1.0564 -0.34125 0.10131 -0.14462 0.037787 -0.12223 -0.38709 0.52203 -0.0050442 0.15408 -0.076458 1.297 0.09067 -0.86906 -0.39709 0.34315 0.095734 0.87503 0.35229 0.12862 -0.32433 -0.12532 -0.3923 -0.34234 -0.32296 0.018866 0.45917 0.064123 -0.27876 0.5286 -0.42159 -0.33292 0.13152 -0.04405 0.4398 0.2448 -0.44363 0.46822 0.16958 -0.1296 0.50189 0.20353 -2.1188 -0.039136 0.32108 1.2495 1.4418 0.093029 0.73064 -0.59638 0.48746 0.03887 0.2354 0.53311 -0.0054371 0.0011725 -0.62694 -0.20826 0.87288 0.58161 0.12437 0.52127 -0.10328 0.15957 0.41192 -0.30203 0.41819 0.53431 0.14843 -0.33504 0.65519 -0.81596 -0.036436 -0.051418 0.25479 -0.83728 0.3841 -0.30054 -0.39719 -0.46924 0.82971 -0.30626 0.05909 -0.05918 -0.038804 0.25907 -0.22836
cause -0.31451 0.016539 -0.12028 0.091967 -0.1578 -0.11432 -0.052581 -0.74152 0.51923 -0.13629 -0.73406 0.51756 0.38058 0.028451 0.036219 -0.43316 -0.78811 -0.25191 -0.20556 0.26934 0.21092 -0.82179 -0.12004 0.035178 -0.14566 0.64552 -0.10408 -0.31695 0.54659 -0.17018 0.49697 0.42708 0.013756 0.066366 -0.56201 -0.22962 0.59425 0.20301 0.070187 0.64621 -0.70185 0.39293 -0.38413 -1.2762 0.55921 0.049682 0.77 -0.053229 -0.89153 -1.0156 0.73107 0.00010285 -0.2882 0.59121 0.61034 -1.6495 0.25177 -0.10067 1.6033 0.77653 -0.27441 1.22 -0.014233 0.27963 1.2147 0.28503 0.11247 -0.54454 0.56912 -1.0445 -0.22564 -0.32845 0.16451 -0.065049 0.6979 -0.021604 0.43826 -0.24301 -1.0112 0.52361 0.29274 0.089848 -0.60624 0.30261 -1.3399 -0.4818 0.25763 0.44364 -0.27505 -0.22066 -0.013359 -0.41031 -0.14586 0.33401 -0.057529 -0.057814 0.29413 -0.93326 0.46529 -0.64922
celebration 0.3878 0.18642 -0.1711 -0.21309 0.22051 1.0303 0.20047 0.57011 -0.82665 -0.0023547 -1.0828 -0.16612 0.2194 -0.46046 -0.12629 -0.074084 0.42971 0.32785 -0.52444 -0.12861 0.11085 -0.7176 -0.21551 -0.19717 0.44547 0.54867 -0.58466 0.95806 0.61424 -0.7477 -1.0325 -0.057081 0.6518 0.58303 -0.091981 -0.54541 0.18538 0.56812 -0.56278 -0.62005 0.47201 -0.20241 0.56311 0.3903 0.10689 -0.54652 0.22575 -0.13129 -0.023524 -0.77432 0.1761 -0.61297 0.18491 -0.10215 -0.70113 -2.0204 -0.33402 0.4182 1.1912 0.010709 -0.48975 1.1436 0.28738 -0.5692 -0.29827 -0.23623 -0.10694 -0.87559 0.32787 -0.66367 0.43042 -0.53273 -0.44365 -0.071913 -0.40317 0.52729 0.18752 -0.3255 -0.7695 0.091511 -0.41715 -0.31582 0.70297 0.32463 -0.70573 -0.067096 -0.6396 -0.56793 0.33984 -0.45581 0.07797 -0.27247 -0.077785 0.50282 -0.95239 -0.77392 0.21351 0.081645 0.1133 0.64262
change -0.21947 0.11521 0.65302 -0.065847 -0.27114 -0.31691 -0.27264 0.072489 -0.1994 0.18162 -0.40119 -0.15237 0.15274 -0.44999 0.35391 -0.18541 -0.31092 0.13765 -0.28494 -0.21728 0.084083 -0.26736 -0.13991 -0.10453 -0.22532 0.08351 -0.0078045 -0.66395 0.35111 -0.32218 -0.017092 1.0643 -0.19717 -0.16794 -0.32944 0.0015641 0.177 -0.23554 -0.41079 -0.45179 -0.98893 -0.39237 0.10609 -0.10884 -0.69575 0.066924 0.011955 -0.033838 -0.56384 -1.2382 0.60476 -0.077292 -0.093608 1.1617 0.45363 -2.4786 0.22304 0.0071302 1.6748 0.28602 -0.43532 0.36987 -0.68299 -0.16679 1.5058 0.27098 -0.32695 -0.1704 0.36196 -0.62764 0.074537 -0.26008 -0.36486 -0.67706 0.40995 -0.55273 -0.13101 -0.21172 -0.37387 -0.023259 -0.044405 -0.83011 -0.25722 -0.13334 -1.4099 -0.051098 0.29462 -0.62621 -0.46596 -0.68857 0.06224 -0.11744 -0.35229 -0.14699 -0.22453 -0.07303 -0.11518 -0.29582 0.69329 0.27524
condolence 0.054777 0.26608 -0.286 0.32902 0.73693 1.3466 -0.6186 -0.75242 -0.087529 -0.41304 -0.54104 0.41588 -0.37764 0.3327 -0.21123 0.36545 0.031477 -0.36445 -0.50506 -0.22074 -0.51117 0.44668 -1.0276 0.1929 0.61802 -0.15453 -0.1469 1.9922 0.62394 -0.37208 0.6559 0.31346 0.018048 0.67371 -0.90703 1.0643 0.24865 0.21609 -0.1479 0.20459 -0.0006821 0.39683 0.81578 -0.34357 -0.051861 0.36411 -0.79029 0.16806 0.92258 0.20876 0.71798 0.18737 1.0979 0.10985 0.083866 0.13067 0.02513 -0.36808 1.1083 -0.097075 0.30297 0.30755 0.21915 -1.0279 -0.92304 0.27203 0.048883 0.99532 0.22069 -1.4747 -0.44236 -0.10012 0.48858 -1.3183 0.18506 2.3337 0.88691 0.66547 -1.0769 0.30184 0.099905 0.43139 0.4986 -1.1815 -0.66569 -0.15552 0.10786 -0.77976 0.10387 -0.59301 -0.010465 0.94289 -0.34322 -0.22604 -0.039885 -0.53098 0.48789 -0.020337 -0.62717 -0.19729
conversation -0.067955 -0.54062 0.61359 0.63857 -0.073291 0.48014 1.0307 -0.091636 0.27114 -0.61459 -0.21623 0.14505 0.25533 0.33227 0.48424 0.29462 -0.7512 -0.33685 -0.29837 -0.2429 -0.35292 -0.22961 -0.2694 -0.83829 0.28948 -0.10967 -0.35135 0.60942 0.19042 0.45855 -0.52362 0.52359 0.62318 -0.27396 -0.16209 0.86963 -0.17565 -0.17614 0.59753 0.28367 -0.35134 -0.54622 0.40214 0.3466 -0.76122 -0.31756 -0.39485 -0.4204 0.52804 -0.68615 0.52501 0.17621 0.57262 0.54026 0.2748 -1.5406 -0.39225 0.10546 0.93577 0.62205 -0.1659 0.87494 0.0076591 -1.2592 0.60705 -0.12817 1.2439 0.12347 0.25682 0.0021609 0.052156 -0.0069151 0.89316 -0.95883 -0.31006 0.81005 0.19882 -0.45056 -0.6187 -0.0039446 -0.096683 0.10065 0.30345 -0.29442 -1.5471 0.090249 -0.33696 0.47377 -0.2639 -0.87063 0.19587 0.30746 -0.11798 0.059015 0.26416 0.12887 -0.28459 0.089496 -0.25511 0.67231
dead -0.23137 0.55131 0.42677 -0.70688 0.12693 0.8776 0.25011 0.1179 0.20099 0.077058 0.20234 1.2406 1.3845 0.30566 0.24463 0.031244 0.0044725 -0.55956 -0.56982 1.0402 1.3052 -0.10674 0.66968 0.014756 0.35274 0.18736 -0.26803 -0.046792 0.7244 0.35216 0.54019 -0.12261 -0.17248 0.42558 -0.30837 -0.81348 -0.24214 0.049793 0.70609 0.1156 -0.49581 0.15895 0.51773 -0.2753 0.58225 0.061947 -0.76757 0.37978 -0.93359 -0.10118 0.22473 -0.85027 0.39527 1.3314 -0.42769 -1.7608 -0.58872 -0.14183 1.1053 0.85685 0.14336 1.7829 0.031949 -0.3399 0.33085 0.63236 0.16429 0.0095432 -0.064748 -0.16116 -0.27562 -0.43381 -0.10947 0.21071 0.46209 0.54024 0.44248 0.15094 -0.71906 -0.066164 0.63292 0.32984 0.071986 -0.1117 -0.95829 -0.19902 0.11376 -0.21557 -0.38205 0.46476 0.80247 -0.23681 0.3108 0.40066 -1.3651 0.017211 -0.35125 -0.013181 0.045133 -0.49811
death 0.46779 -0.23088 -0.11697 -0.22404 0.11322 1.0327 -0.21111 -0.31715 -0.22839 -0.12901 -0.40314 1.0802 0.27174 0.40847 0.60069 -0.1171 0.1692 -0.5706 -0.82376 0.54458 0.69882 -1.074 0.64039 0.67427 0.43609 0.64797 -0.10088 -0.54722 0.71992 0.31302 0.72601 0.12857 -0.044842 0.36706 -1.3021 -0.19316 -0.093859 -0.20933 0.011 -0.20756 -0.62962 0.49631 0.71029 -0.94234 0.45589 -0.093971 0.37991 -0.54174 -0.088126 -0.58042 0.37931 -0.54781 0.16167 1.5103 -0.29245 -2.0917 -0.21956 -0.27721 0.88789 0.65286 0.033116 1.035 0.21471 -0.54759 0.96584 -0.11492 -0.0002172 -0.013854 -0.28948 0.067677 -0.17173 -0.42844 0.20903 0.33339 0.3114 0.1071 0.47377 -0.54476 -0.92019 -0.20278 1.0322 0.44488 0.27289 -0.15569 -1.2975 -0.45606 0.068494 -1.1285 -0.40123 -0.28636 0.53849 -0.44621 0.20184 1.0219 -0.39894 -0.13199 0.13154 -0.53291 0.027094 -1.2837
end 0.14726 0.088411 0.28386 -0.2797 -0.32498 -0.31503 -0.16317 0.49901 -0.050685 -0.13406 0.18811 0.17244 0.19983 0.106 0.44888 -0.16482 -0.15723 -0.2267 -0.52985 -0.19136 0.66418 -0.34908 0.2041 0.19812 0.96231 -0.076071 -0.40823 -0.54391 0.4698 -0.42401 -0.20947 0.25178 0.081003 -0.54254 -0.15188 0.16457 0.018161 -0.074509 -0.19323 -0.27414 -0.060197 -0.16855 0.37944 0.015304 -0.10552 0.025971 0.23706 -0.46123 0.22297 -0.83349 0.15802 -0.20303 -0.12614 1.0924 -0.28469 -2.8841 -0.48502 -0.70376 1.9497 0.3812 -0.42812 0.48972 -0.41521 -0.43973 0.66411 -0.094294 0.52652 0.090762 -0.28974 -0.43982 0.088801 -0.33429 -0.77197 -0.60414 -0.077605 -0.34217 -0.68175 0.72201 -0.93264 -0.23963 0.43971 0.08899 -0.44907 0.48743 -1.0736 0.32468 -0.11632 -0.2534 0.23838 -0.18391 -0.27039 0.72632 -0.61252 0.56877 -0.7907 -0.37271 0.28074 0.28486 0.50204 0.083894
event 0.036635 0.38644 0.033965 0.18163 -0.0043753 -0.08356 0.31094 0.90377 -0.37531 -0.082346 0.2641 0.0065404 0.45247 -0.95239 -0.39448 0.2575 0.02835 0.32594 -0.71659 -0.25627 0.1281 -0.32384 0.29307 0.63669 0.17687 -0.15804 -0.020076 0.13795 0.71592 -0.57968 -0.92249 0.098054 0.38147 0.32935 0.52091 -0.41321 -0.48903 0.84919 -0.99661 0.033577 -0.020275 -0.13345 0.24053 -0.1273 -0.016056 -0.20626 0.43093 -0.48086 -0.46966 -1.0099 -0.071489 -0.53115 0.9883 0.3792 0.40808 -2.8152 -0.3088 0.56092 1.5873 0.68631 -0.71104 0.94602 0.30681 -0.083049 0.5194 -0.65069 -0.3332 -0.080717 0.73989 -0.42885 -0.30141 -0.5642 -0.55634 0.74043 -0.038236 0.29187 0.86317 -0.68212 -0.5792 0.1154 0.27978 -0.48469 0.16325 0.22492 -1.1002 0.022193 -1.0699 0.13388 0.41443 -0.39188 -0.31995 0.21459 0.56411 0.43518 0.44179 0.090072 -0.030423 0.19745 1.0499 0.31419
find -0.13778 0.47448 0.30845 -0.0065366 -0.30137 -0.078177 -0.40392 0.01812 0.59883 -0.46362 0.049392 0.39218 0.039239 -0.040216 -0.075129 -0.2865 0.4401 0.30497 -0.70533 0.83806 -0.077475 -0.16635 0.0043365 -0.69401 -0.12774 -0.19295 -0.10266 -0.76069 0.14567 -0.33508 -0.045902 0.1932 -0.37027 0.10839 0.55297 0.29166 -0.43817 -0.17746 0.63856 -0.3869 -0.50918 0.0090235 -0.26654 -1.045 -0.44118 0.26802 -0.32636 0.23194 0.13261 -0.49429 0.11496 -0.15354 0.0020542 1.1512 0.11969 -2.4802 -0.2658 -0.30394 1.5514 0.11553 -0.3729 1.0021 -0.24329 -0.019435 1.0817 -0.075474 0.68294 0.47288 -0.098109 -0.69551 -0.067878 -0.45406 -0.12239 -0.68213 0.2962 0.30131 -0.22948 -0.43777 -0.51955 0.064075 0.25427 0.53043 -0.67078 -0.28424 -1.3807 -0.42606 0.51254 0.31644 -1.0356 -0.13751 0.031492 0.46057 0.48279 -0.48123 -0.60419 -0.2559 -0.32268 -0.31996 0.23196 0.43381
forget -0.26047 0.50586 0.77615 -0.18883 -0.81256 0.55804 -0.47859 0.19635 0.41199 -0.52175 0.33484 0.19895 -0.3066 0.068879 0.025782 -0.02858 0.12097 0.42309 -0.86942 0.38777 -0.071049 0.16167 -0.17923 -0.35174 0.44347 0.082121 -0.19884 -0.49723 1.2953 -0.72309 -0.24339 0.42997 -0.052513 -0.046952 -0.22449 0.043268 -0.37383 -0.084478 0.30529 -0.68159 0.17282 -0.01526 -0.044917 -0.85869 -0.61415 0.071458 0.32677 -0.21306 -0.028305 -1.2042 0.20948 0.25184 -0.1044 0.45297 0.09194 -1.3279 0.47062 0.68728 0.49777 -0.055195 -0.006487 0.74685 -0.42351 -0.85316 0.41502 0.21259 0.54164 0.39695 -0.55275 -0.38055 -0.010042 -0.060737 -0.28725 -0.090859 -0.070583 0.32718 -0.025515 0.12085 -0.077777 0.42664 0.26882 -0.029983 -0.25797 0.17261 -1.0747 -0.26379 -0.68073 0.15793 -0.49552 0.013695 0.13442 0.27312 0.36656 -0.27968 -0.90772 -0.22806 -0.034266 -0.31793 -0.12746 0.3177
friend 0.21942 0.084255 0.25334 -0.26009 0.15089 0.30683 0.19732 -0.22998 -0.039024 -0.2667 -0.2577 -0.1072 0.079484 0.28896 0.10167 -0.46713 0.44127 -0.65477 -0.79457 1.0237 -0.10434 0.075217 -0.16534 -0.0013644 0.61981 0.36067 -0.63205 -1.0154 0.63073 0.4874 0.080137 0.98819 0.7688 0.26886 -0.14216 0.49658 -0.10065 -0.081272 0.91242 -0.25674 -0.26064 0.32271 0.94923 -0.26848 -0.32848 -0.064021 -0.7754 -0.039827 0.2267 -0.39891 0.10207 0.067857 0.69459 0.76695 0.18629 -2.1557 -0.76446 0.035645 0.35605 0.37039 0.43783 0.80728 -0.067912 -0.17548 0.53907 -0.5716 1.0134 0.87986 0.37774 0.42349 -0.37548 0.22991 0.06493 -0.57999 -0.11536 0.34893 0.44816 -0.33186 -0.26887 -0.030331 0.41269 0.77495 0.14478 -0.64801 -0.94435 -0.42393 -0.43133 0.26449 -0.39334 -1.1853 0.21286 0.016943 1.1487 0.26391 -0.36739 0.03612 -0.34997 -0.20432 -0.53747 -0.03697
gift 0.75294 0.43 0.16172 -0.3033 0.73573 0.78171 0.068214 0.13771 0.041672 -0.27526 -0.2151 -0.13324 0.013914 0.03316 0.27987 0.31955 0.84682 0.53117 -0.56534 0.39172 -0.53271 -0.10079 -0.84001 -0.59247 0.58637 0.52059 -0.3713 -0.29144 -0.36805 -1.0481 0.26035 0.42217 0.45115 -0.20464 -0.20913 0.29526 -0.35061 0.11957 -0.46233 -1.251 0.86619 0.004677 0.9312 -0.45522 0.0554 -0.49908 -0.45312 0.095719 0.032296 -0.34047 0.63717 0.21496 0.7938 0.0067019 -0.30742 -1.7009 0.031456 -0.22717 1.3289 -0.3373 0.29396 0.49177 0.0053794 0.41028 -0.11972 -0.36042 0.16093 0.22901 0.60239 -1.0908 -0.26652 0.085778 0.071803 -0.044309 -0.13971 1.1628 0.002247 -0.36684 -0.71307 0.38492 -0.017155 -0.091747 0.17586 -0.56655 -1.0354 0.18513 0.022957 -0.72734 0.029347 -0.8766 -0.1152 0.044349 1.1697 -0.64343 -1.1919 -0.38743 0.36523 -0.29051 0.38384 0.2066
give -0.037608 0.15683 0.4796 -0.03854 -0.1747 0.15475 -0.38234 0.24254 -0.16832 -0.3267 -0.064252 -0.023559 -0.19514 -0.015289 -0.14977 -0.010363 0.06325 0.18948 -0.55627 0.88542 0.041148 -0.5068 -0.32173 -0.11402 -0.095954 -0.12424 -0.32039 -0.37202 0.34554 -0.53887 -0.010369 0.65003 -0.11295 -0.05049 -0.10818 0.45634 -0.028582 0.33935 -0.56663 -0.035071 -0.23191 -0.37484 0.069394 -0.78161 -0.48102 -0.26895 -0.0034449 -0.25412 -0.20661 -0.68642 -0.16513 0.18474 -0.18152 0.77072 0.26822 -2.4549 0.20531 -0.47267 1.7923 0.015615 0.070412 0.39826 -0.44114 0.12505 0.74115 0.0047398 0.29138 0.92495 -0.47189 -0.48156 -0.19627 -0.30952 -0.024238 -0.92727 0.42467 0.43885 -0.61606 -0.50453 -0.68953 -0.3344 0.81046 -0.35985 -0.74034 -0.42343 -1.5018 0.0016398 0.43831 0.88079 0.012386 -0.20478 0.042448 -0.74691 0.077445 -0.79721 -0.73456 -0.59776 -0.024764 -0.018467 0.10175 0.41201
grieving -0.065946 0.42357 -0.011126 -0.26618 -0.7873 1.5341 -0.79073 0.13013 -0.0031553 -0.23467 -0.0088984 0.10239 0.45717 -0.70888 -0.3043 -0.62453 -0.10796 -0.3723 -0.087732 0.8352 -0.72129 0.11398 -0.16832 0.46566 0.60133 -0.21172 -0.16016 0.79337 0.47028 -0.0033754 0.26299 -0.098463 0.50071 0.34572 -0.5479 -0.48841 0.4838 0.4849 0.87618 -0.30754 -0.33431 -0.11501 0.35306 -0.084449 -0.50531 0.25836 -0.13467 1.2138 0.16437 -0.13836 0.033867 -1.0381 0.54648 0.604 -0.14605 0.075109 -0.1888 -0.49334 0.10035 0.32606 0.11696 0.48988 0.7761 -0.46111 -0.017781 0.70165 -0.0078712 0.39954 -0.18055 -0.67144 -0.36494 -0.088928 -0.27226 -0.17474 0.52985 1.106 0.37917 -0.26491 -0.18833 -0.035954 -0.041247 0.73974 0.49581 0.62131 -1.2933 -0.19918 -0.18647 0.037725 -0.9294 -0.66901 -0.11472 -0.067711 0.42795 0.14565 -0.56685 -0.31375 0.33002 0.33351 -0.33871 0.28216
happy -0.090436 0.19636 0.29474 -0.47706 -0.80436 0.3078 -0.55205 0.58453 -0.17056 -0.84846 0.19528 0.23671 0.46827 -0.58977 -0.12163 -0.24697 -0.072944 0.17259 -0.0485 0.9527 0.50629 0.58497 -0.19367 -0.45459 -0.031095 0.51633 -0.24052 -0.1007 0.53627 0.024225 -0.50162 0.73692 0.49468 -0.34744 0.89337 0.057439 -0.19127 0.39333 0.21182 -0.89837 0.078704 -0.16344 0.45261 -0.41096 -0.19499 -0.13489 -0.016313 -0.021849 0.17136 -1.2413 0.079503 -0.91144 0.35699 0.36289 -0.24934 -2.1196 0.14534 0.52964 0.90134 0.033603 0.022809 0.70625 -1.0362 -0.59809 0.70592 -0.072793 0.67033 0.52763 -0.47807 -0.67374 0.36632 -0.38284 -0.10349 -0.6402 0.18104 0.82568 0.066403 -0.40791 -0.083813 -0.36487 0.045362 -0.073527 -0.20117 0.37441 -1.4024 -0.25605 -0.4708 -0.16145 -0.87921 -0.36325 -0.17357 -0.077983 0.43273 0.0089295 -1.0316 -0.11589 -0.34524 0.11514 -0.40812 0.20203
help -0.2272 0.41578 0.035985 -0.22895 0.13481 -0.12407 -0.56653 -0.32096 0.16223 -0.024273 -0.033683 -0.4281 -0.043623 -0.18682 -0.29002 -0.2464 0.51505 -0.27678 -0.97691 0.6466 -0.2955 -0.34955 0.0085932 0.17147 -0.24341 0.018099 -0.57991 -0.68634 0.29723 -0.19539 -0.39285 0.55418 -0.11855 0.40271 -0.24441 0.13792 0.14396 0.15116 0.19257 -0.095074 -0.59663 -0.27685 -0.43814 -0.98947 -0.52515 0.52006 -0.4445 -0.23366 -0.21019 -0.9059 -0.78404 0.11093 0.09208 1.2145 0.52067 -2.4821 -0.17693 -0.94136 1.8578 0.17312 -0.32761 0.45067 -0.092353 0.11201 0.50869 0.52743 -0.075203 0.73518 0.40716 -0.74727 0.60342 -0.69189 -0.56087 -0.87252 0.56949 0.35642 -0.25138 0.37888 -0.68022 0.19444 0.92435 0.5161 -0.62632 -0.16946 -1.825 0.23406 0.31977 0.76773 -0.83824 -0.38335 -0.037695 -0.053895 0.1697 -0.97895 -0.5481 -0.25664 0.10314 -0.16628 0.216 0.015172
helpful -0.69442 0.21123 0.17011 0.25397 -0.048559 -0.32064 -0.069545 -0.40569 0.5031 -0.62652 0.015663 -0.67851 -0.010982 -0.30366 0.36464 0.38325 -0.23923 -0.92818 -0.23795 0.71914 -0.17569 0.022314 -0.51007 -0.45071 -0.52413 0.19365 -0.34681 -0.0884 -0.76422 0.069376 -0.13918 0.33992 0.20398 -0.20828 0.46843 0.34967 -0.5504 -0.11632 -0.071601 -0.43505 -0.43636 0.47579 0.21645 -0.74972 -0.70331 -0.14782 0.36703 0.12342 -0.10232 -0.97387 0.689 -0.19026 -0.086874 0.4994 -0.24844 -0.57323 0.43751 -0.33537 0.53718 -0.24992 -0.71095 0.76779 -0.26959 0.077531 0.53358 -0.077603 0.37093 0.4204 0.47358 -0.76195 0.3522 -0.51085 0.70924 -0.59054 0.47397 0.51122 0.28084 0.13522 -0.2083 -0.2261 -0.12935 0.2787 -0.4261 -0.53508 -1.4312 0.50509 0.61572 0.651 -0.8801 -0.77945 -0.52784 0.2969 0.53099 -0.55711 -0.0003156 0.35588 -0.37092 -0.64331 -0.2412 0.92161
inside -0.31868 0.10495 0.36321 -0.537 0.34586 1.024 -0.10644 0.12927 0.052443 0.16226 0.70736 0.14661 0.60824 0.714 -0.14807 0.33136 -0.12283 0.25349 -0.60635 -0.65362 0.589 0.57992 0.23824 -0.49929 0.62026 -0.39817 -0.1042 -0.19722 0.093341 0.40365 0.41922 -0.055124 0.32178 0.10953 0.53929 0.27083 0.014205 0.6854 0.41473 -0.2423 -0.1516 -0.35455 0.094878 0.015852 0.26849 0.0074604 -0.41396 0.86791 0.14038 -0.40163 0.47218 0.45646 -0.22318 1.2675 -0.05444 -2.5496 -0.50904 -0.26655 1.6358 0.34545 -0.32031 1.1931 0.31474 0.4995 0.46445 0.38668 0.71376 -0.37741 -0.52855 0.20543 0.41097 -0.11162 0.6961 -0.40214 0.31118 0.24104 0.3197 -0.31672 -0.10723 0.6203 0.63534 0.43416 -0.815 -0.10723 -0.80245 0.12039 0.64703 0.23454 -0.0047208 0.019483 0.47385 -0.15604 0.095631 0.057837 -0.35154 -0.19085 0.20362 0.26836 0.76916 0.12752
kind -0.026005 0.53366 0.39024 -0.29057 -0.31191 0.33144 -0.1468 -0.060752 -0.052816 0.10411 -0.34785 -0.12886 0.27734 -0.022405 0.34288 0.21349 -0.12089 0.39256 -0.17091 0.569 0.24315 0.39493 -0.38585 -1.0171 0.18168 0.45775 -0.28563 -0.43279 -0.081943 -0.43207 -0.24885 0.62558 0.088044 -0.16648 0.31801 -0.1271 -0.18347 -0.095944 0.33734 -0.23521 -0.15311 -0.032779 0.20442 -0.38166 -0.43356 -0.16768 0.56629 0.2208 0.0080966 -1.0837 0.14046 -0.12875 0.15246 0.38528 -0.068184 -2.4736 0.53147 0.14456 1.5009 0.27377 0.17881 1.0014 -0.73041 -0.15341 1.0834 -0.22241 0.70788 -0.1372 -0.17945 -0.39371 0.22287 -0.53734 -0.23252 0.11547 0.26447 0.36451 -0.045191 -0.3732 -0.70546 0.20915 0.53966 0.092959 -0.3443 0.10272 -1.6837 0.16063 -0.027687 -0.27364 -0.34829 -0.88791 0.20653 -0.14252 0.033277 -0.056471 0.20125 -0.2154 -0.34917 -0.58863 0.2613 0.73867
learn 0.18891 0.63799 0.075638 0.33383 -0.99587 0.23747 -0.69074 -0.086302 0.36911 -0.21226 -0.10531 -0.011829 0.22845 -0.1619 -0.50134 -0.11213 0.24211 0.48296 -1.0838 0.73522 -0.53425 -0.43445 -0.045934 -0.52935 -0.37118 -0.27539 -0.28836 -0.46369 0.82424 0.07192 -1.3581 1.0104 -0.24337 -0.13548 0.31837 0.086117 -0.49628 0.098393 0.47586 -0.54786 -0.85811 -0.062529 -0.61222 -0.60052 -1.0714 0.62396 0.17252 -0.087842 0.16302 -1.0081 -0.2794 0.14038 -0.095633 0.85352 0.28309 -1.3578 0.29672 -0.21952 1.1973 -0.12956 -0.29996 1.3762 -0.16659 -0.8207 0.36948 0.34471 0.21252 0.46557 0.0086329 -0.093422 -0.081852 0.068303 0.032109 -0.50893 -0.11212 0.56576 -0.48463 -0.24247 -0.026416 -0.051543 0.33341 0.034376 -0.57394 -0.26747 -1.5794 0.025365 0.017201 -0.1132 -0.98805 0.014049 0.26933 -0.013693 0.43831 -0.29728 -0.54932 -0.27241 -0.6725 -0.91486 0.072425 0.3408
liar 0.55796 -0.11175 0.9917 -0.13394 -0.53663 0.38793 0.34077 0.11495 0.5202 -0.34177 -0.46604 0.17132 -0.80018 0.50609 0.34059 1.4452 0.73844 0.38616 -0.17846 0.30273 0.12672 0.43513 -0.14959 -0.60809 0.44541 1.1092 -0.62678 0.35383 0.15165 -0.26081 1.1082 0.067265 0.48714 -0.21295 0.69156 0.70233 -0.44759 0.19293 0.76929 0.22309 0.10285 1.5246 0.19902 -0.14836 -0.41671 -0.69973 0.2021 -0.29498 -0.61296 0.041397 -0.78322 -0.25307 1.09 0.32567 -0.67695 -0.19356 0.064834 0.3275 -0.16173 -0.12224 0.13113 -0.70666 -1.5247 -0.81013 0.64827 -0.51839 1.6682 0.57469 0.39945 -0.24447 -0.46623 0.11719 0.30616 0.39773 -0.061383 0.13272 0.78359 0.40967 0.45893 -0.043195 1.2088 -0.1514 -0.33019 -0.46536 -0.58735 -0.24243 -0.43365 0.37707 -0.7947 -0.47124 -0.10866 0.16915 -0.34936 0.69785 0.92021 -0.22443 0.016717 -0.43392 0.56739 -0.54817
lie -0.23358 0.35933 0.92486 0.39903 -0.16493 0.6127 -0.24718 0.23436 -0.097589 0.076001 1.0207 0.98902 0.5231 0.65724 0.10393 -0.36353 0.15355 0.92292 -0.86261 -0.18176 0.54859 0.67747 0.21167 -0.0013932 -0.71128 0.027726 0.21236 0.016833 0.36277 -0.6943 -0.1433 -0.76552 0.48446 -0.15851 0.4183 0.44475 0.47363 -0.088252 0.77444 0.1349 -0.030228 0.34295 -0.19264 -0.32343 -0.48391 0.047799 0.44139 1.0401 -0.55914 -0.09301 -0.0064729 -0.049683 0.30818 1.1789 0.092152 -1.4144 -0.023845 -0.34842 1.1614 -0.078489 -0.090954 0.51496 0.042949 -0.33292 1.4909 0.77617 1.0812 0.46444 -0.21057 -0.6054 -0.50559 0.45249 0.7061 -0.453 0.2268 -0.36223 0.094513 0.13698 0.13703 0.64975 0.35803 0.61225 -0.57282 -0.53099 -0.84966 -0.40719 -0.42168 0.086742 0.13659 0.021004 -0.38663 -0.28049 0.046877 0.22259 0.46609 0.47313 -0.41178 -0.37197 -0.0946 0.030776
lose 0.3589 0.35861 0.71967 -0.2629 -0.72579 -0.017232 -0.34936 0.22023 0.17391 -0.56013 -0.15136 0.39351 -0.16594 -0.22384 -0.35777 -0.78061 -0.2847 0.49686 0.15541 1.005 0.54853 0.097401 -0.010439 0.011255 0.12497 -0.22772 -0.030539 -0.76324 0.92588 -0.72168 0.084569 0.98466 -0.2521 -0.53361 -0.20213 -0.20666 -0.59441 0.42521 -0.18201 0.21557 0.11743 -0.67235 0.23224 -1.0226 -0.14977 -0.037033 0.56471 -0.027686 -0.16115 -1.2288 -0.11083 0.090339 -0.34036 0.9974 0.7546 -1.6833 0.45733 -0.12419 1.1877 0.26952 -0.14923 0.27905 -0.79808 -0.10622 0.67168 0.51021 0.35436 0.67079 -0.071601 -0.29661 0.10467 -0.03739 -0.0084539 -0.041553 0.038266 -0.098436 -0.80842 -0.3172 -0.32736 0.44164 0.29886 -0.2182 -0.8293 -0.048584 -0.94249 -0.44073 0.14206 0.40487 -0.2184 0.24991 -0.025708 0.044069 0.66528 -0.079967 -0.71086 -0.014053 0.62423 0.38036 0.50951 0.078489
lost 0.5835 0.42064 0.74711 -0.29483 -0.22517 -0.22572 0.11884 0.1327 -0.00033614 -0.51882 0.50173 0.34515 -0.23027 -0.26734 -0.02741 -0.82223 -0.042778 0.15676 0.14021 0.94835 1.0673 0.07269 0.64092 0.58377 0.66493 -0.62929 -0.1073 -0.51744 0.64967 -0.53275 0.26103 0.45002 -0.13336 0.045509 -0.39679 -0.57117 -0.34775 0.56703 -0.14142 0.2894 -0.22543 -1.0913 0.67846 -0.84581 0.36959 0.18958 0.28732 0.30406 0.59817 -0.9915 -0.43647 0.30661 0.34638 1.14 0.33798 -2.0349 0.19266 0.031037 1.149 0.95803 -0.045584 0.30464 -0.86536 0.35404 0.54329 -0.1487 0.32867 0.80977 0.36148 0.2645 -0.3206 0.42229 0.1325 0.18834 -0.2441 0.033101 -0.63831 0.075199 -1.2299 0.57007 0.11789 0.33808 -0.51562 0.2397 -1.2669 -0.34315 -0.072112 0.35259 -0.17565 0.31274 -0.14744 0.048297 0.65228 0.88821 -1.1009 -0.1029 0.064809 0.070476 0.11868 -0.20001
make -0.33252 0.073082 0.34678 -0.51402 -0.2465 -0.19302 -0.24952 0.21636 0.047513 -0.043 -0.04666 -0.089818 -0.11834 0.38686 -0.0033615 -0.15131 0.3567 0.75659 -0.19621 0.67868 0.27862 -0.037748 0.059066 0.035084 -0.13587 -0.035028 -0.24658 -0.53655 0.37369 -0.45819 -0.47222 0.83221 -0.066929 -0.3669 0.39463 0.64431 0.081114 0.079185 -0.25348 -0.15885 -0.48075 -0.085646 -0.099086 -0.73175 -0.5717 0.0047305 0.081587 -0.41644 -0.20028 -1.1587 -0.10217 0.0078988 -0.073715 0.98189 -0.14205 -2.5327 0.31952 -0.167 1.993 0.047356 -0.40419 0.87967 -0.28156 0.035413 0.89974 -0.19652 0.61577 0.74934 -0.31396 -1.0302 0.12434 -0.58429 -0.089311 -0.62441 0.43783 0.086182 -0.57858 -0.021869 -0.48689 0.055154 0.88025 0.12143 -0.6449 0.19987 -1.6529 -0.092651 0.31107 0.26664 -0.16642 -0.27688 0.26257 -0.1307 -0.28866 -0.88377 -0.75213 -0.5063 -0.081468 -0.46963 0.6778 0.28027
memory -0.21375 0.66658 0.1326 0.27644 0.12619 0.17991 -0.58776 -0.14888 0.05159 -0.60918 -0.31197 0.1104 0.089148 -0.30743 0.51838 0.38746 0.39511 0.4095 -0.11236 0.69316 -0.58378 -0.8079 -0.054836 0.60701 0.40247 -0.37493 -0.28716 0.17334 0.62016 0.32431 0.66667 0.51915 -0.41981 0.18721 -0.14984 -0.38712 0.17765 0.38589 0.49098 -0.95427 0.71266 -0.69726 0.63755 -0.16543 -0.60788 0.41869 0.85243 -0.01086 -0.27728 -0.63099 0.34502 -0.68057 0.32454 0.77437 0.94067 -1.5449 -0.29765 0.29832 1.4597 -0.31427 0.49622 1.1261 0.13694 0.23263 -0.0022865 0.041529 0.68559 -0.11003 0.59265 -0.11493 -0.012672 0.68058 0.85661 -0.065253 -0.015374 0.67686 0.39411 0.37237 -0.2972 0.28253 0.25752 0.2808 -0.45083 0.33491 -1.9807 1.1108 0.061608 -0.50676 -0.060394 0.30038 -0.10328 0.94457 0.58555 1.1617 -0.030131 -0.25541 0.89992 -0.98099 0.26793 -0.19339
near -0.31416 -0.70232 0.34693 0.53663 -0.080898 -0.0042711 -0.35158 0.42987 -0.13552 0.24294 -0.075104 0.52758 0.76059 0.34483 0.60355 -0.53057 0.61512 -0.55031 -0.82142 0.37852 1.1153 0.83774 0.601 -0.015083 0.078309 -0.28224 -0.70959 -0.24581 -0.14316 0.20186 -0.32922 -0.47207 0.77695 0.44387 0.34627 -0.12042 0.36393 -0.093078 0.60227 0.28177 -0.061487 -0.77608 -0.12935 -0.51492 0.87465 0.38641 0.50686 0.38793 -0.34406 0.11703 0.13556 -0.0034561 0.18449 0.87862 -0.48197 -2.7902 -0.87992 -1.079 1.5262 0.35974 -0.21009 1.2093 0.24654 0.069697 -0.24437 0.4212 0.49075 -0.72326 -0.26268 0.21909 -0.2757 -0.3568 0.078958 -0.68321 0.20012 -0.35862 1.3119 -0.033313 -0.517 0.31688 0.52575 0.53999 -0.70762 -0.27203 -0.24229 -0.023543 0.33711 -0.32879 0.57873 0.10483 0.58195 -0.16011 -0.099334 1.062 -0.99297 0.453 0.0052464 0.29867 1.0032 0.15994
promise 0.33207 0.10407 0.32345 0.3495 0.38931 -0.35678 -0.5769 0.12767 -0.06672 -0.16047 -0.47139 0.33428 -0.016098 0.12172 -0.32377 -0.42249 0.20941 0.50995 -0.32246 0.11198 -0.095524 -0.5369 -0.6729 -0.020625 -0.12083 0.67507 -0.50348 -0.50268 0.40391 -0.68769 0.45378 0.32103 0.017019 0.16258 -0.094171 0.17548 0.057468 -0.43244 -0.69377 0.1429 -0.01016 0.20629 0.48692 -0.22276 -0.27439 -0.43094 0.29882 -0.1595 -0.26734 -0.55746 0.041621 -0.13796 0.52411 0.75739 0.49527 -1.6749 0.32112 -0.30732 1.1407 -0.29684 0.24495 0.06796 -0.78571 -0.61267 0.40712 0.25569 0.29397 0.37551 -0.097656 -0.87556 0.58419 0.0054409 -0.4996 -0.65158 -0.45014 0.65284 -0.051507 0.060955 -0.82109 -0.02117 0.57109 0.08652 -0.14395 -0.01668 -1.2391 0.17051 0.47115 0.39442 -0.54463 0.047479 -0.081046 -0.21569 -0.079787 0.04195 -0.79018 -0.49926 -0.080442 0.068247 0.24194 0.68003
remember -0.0097541 0.68326 0.31143 -0.21319 -0.79919 0.35643 -0.41313 -0.051574 0.16371 -0.60686 0.27815 -0.26208 -0.050184 0.090401 0.089076 -0.19419 0.21011 0.39387 -0.73783 0.47526 0.0027555 0.24104 -0.38167 -0.47092 0.082149 0.0032516 -0.65103 -0.31808 0.93591 -0.39491 0.096939 0.49108 0.53379 0.18813 -0.2205 -0.23961 -0.24398 0.1641 0.73202 -0.57191 0.13358 -0.036055 0.36413 -0.44697 -0.77524 0.14162 0.43637 -0.43527 -0.16954 -1.3736 0.36751 -0.14788 0.26353 0.64733 -0.011985 -1.4686 0.028819 0.35074 0.6576 0.23051 -0.29146 1.5442 -0.37906 -0.72561 0.48441 0.13461 0.68452 0.10461 -0.46004 -0.0043274 -0.11504 0.0079483 -0.22174 -0.054498 -0.20826 0.71635 0.17945 -0.084416 -0.18124 -0.15351 -0.035673 -0.11434 -0.39298 0.0035464 -1.3047 0.041371 -0.57969 -0.30793 -0.64138 0.075469 0.24376 0.1256 0.33484 -0.23811 -0.88543 -0.38545 -0.22934 0.01774 -0.2587 0.25302
reminder -0.32639 0.62128 0.62942 -0.32829 -0.074634 0.25444 -0.60753 -0.29844 0.045117 -0.56596 -0.35642 -0.42905 0.28458 0.065376 0.51695 0.44573 0.038048 -0.16046 -0.4549 0.030106 0.50728 -0.24361 -0.59452 -0.047527 0.21428 -0.13454 0.060507 0.90684 -0.27178 -0.83106 0.26578 -0.56673 0.11146 0.061768 -0.71993 -0.16677 -0.21936 -0.33496 0.76477 -0.22433 -0.28599 0.25256 0.67194 -0.17668 -0.04297 0.49306 1.4013 0.40005 -0.089176 -0.32863 0.58053 -0.49426 0.1597 0.84804 0.45245 -1.3861 0.5311 -0.52485 0.86304 -0.25145 -0.22618 0.73234 -0.51155 -0.66915 0.37114 -0.27108 -0.059169 -0.28172 -0.294 -0.51894 0.21106 -0.10656 -0.12993 0.39678 0.70191 0.32699 0.43782 -0.2109 -0.26833 -0.12987 0.54194 -0.26996 0.034886 0.12652 -0.78737 -0.13288 -0.39764 0.31591 -0.49638 -0.84737 0.23969 0.34841 0.26417 0.23015 -0.3964 -0.2554 0.14293 -0.49719 -0.36453 1.0583
repair -0.55594 0.32773 -0.6509 0.078271 -0.60932 -1.0244 -0.011158 0.75182 0.7938 1.1332 0.36083 0.086106 0.47625 -0.085698 -0.30697 -0.33904 0.46103 -0.042237 0.12545 0.59079 -0.36853 -0.29615 -0.21109 -0.43552 0.51235 -0.31798 -1.0225 0.020054 0.37213 -0.044614 -0.060587 0.05654 0.017448 0.10782 -0.58697 0.25525 -0.45961 -0.69275 0.29792 0.44196 0.41729 -0.60749 0.23498 -0.7705 -0.5743 0.40822 -0.19333 0.1616 0.2702 -0.49146 0.17316 0.39649 -0.24298 0.3984 0.3031 -1.4561 -0.17477 -0.82557 1.4972 1.1062 -0.31783 0.41687 0.39379 1.0153 0.16355 0.40011 -0.31518 -0.33062 0.070102 -0.91181 -0.25119 0.87722 -0.17185 -0.14837 1.2317 -0.17162 0.32452 1.254 -0.72781 0.39002 0.34806 0.27323 -0.21657 0.91056 -1.1075 0.82939 0.25203 0.42823 -1.4217 -0.29448 0.16105 -0.095056 0.38611 -0.38205 -0.03881 0.1958 0.81516 -0.29745 0.56701 -0.43732
right 0.1006 0.20405 0.46027 -0.61584 -0.3146 0.59874 -0.51974 -0.36454 -0.0575 0.011387 0.05946 0.1089 0.69055 -0.096085 0.25253 -0.1605 -0.32447 0.28349 -0.5416 0.0011315 0.593 0.48945 -0.063187 -0.16199 0.75422 0.18403 -0.44059 -0.92566 0.63593 -0.23815 0.30404 1.1023 0.4705 0.13797 0.16553 0.031744 -0.36064 0.50744 -0.38172 -0.068022 0.059017 0.099114 0.62605 -0.58257 -0.92806 -0.52826 0.13443 -0.12114 -0.30145 -0.19401 0.36958 0.49245 -0.21664 0.75818 -0.16476 -2.616 0.29193 0.013506 2.2676 0.76083 0.21532 0.70252 -0.50722 0.49768 1.1843 0.26868 0.56544 0.10854 -0.8093 -0.4013 0.025977 0.17244 0.0081071 -0.94537 0.4824 -0.43172 -0.86337 0.16363 -0.17601 -0.087241 0.11431 0.20619 -0.71245 -0.14193 -0.94202 -0.47558 0.39271 0.69967 0.14003 -0.57785 -0.67092 -0.69858 0.017632 0.41235 -0.4412 0.47438 0.25475 -0.2502 0.60766 0.070504
sad -0.19532 0.20232 0.61203 -0.28992 -0.86588 0.7558 -0.64644 0.81501 0.84841 -0.44887 0.11233 -0.15414 0.0037169 -0.33247 -0.2841 0.41221 0.029481 -0.37827 0.4824 1.2798 0.68064 0.72289 -0.48955 0.2333 0.099052 0.20363 0.089845 0.64516 0.74412 0.28051 -0.15278 -0.20226 0.43044 -0.69753 -0.82179 -0.37686 0.24957 0.65398 0.61427 -0.78519 0.24869 0.18725 0.42488 -0.7323 -0.21912 0.24199 1.1491 0.72102 0.0076716 -0.70094 0.43828 -0.71392 0.54495 0.43827 -0.38535 -1.3452 0.50617 0.64701 0.46118 0.09306 0.14875 1.0391 -1.1242 -1.0595 0.6136 -0.55698 0.84552 0.34413 -0.67045 -0.33305 0.34069 -0.40519 0.1561 -0.1154 0.76092 0.58474 0.46913 0.11088 0.018671 -0.18142 -0.34331 0.32092 0.094817 0.26299 -1.7466 -0.080278 -0.70726 -0.38399 -0.24015 -0.16845 0.74608 0.4715 -0.51143 0.57181 -0.44642 0.33972 -0.224 -0.14648 -0.76086 0.59095
take -0.27064 0.0051896 0.1497 -0.098242 -0.34941 0.053679 -0.49698 0.65251 -0.34078 -0.23466 0.091924 0.4328 -0.05257 0.25661 -0.073174 -0.31834 0.24386 0.52261 -0.64237 0.3446 0.67449 -0.41091 -0.068067 0.11036 -0.31174 -0.1838 -0.32548 -0.56073 0.46353 -0.38417 -0.66699 0.51162 -0.19582 -0.16548 -0.11617 0.40172 -0.27041 0.12839 -0.24684 -0.086713 -0.51182 -0.11955 0.14814 -0.85205 -0.42312 0.27046 -0.19395 -0.1686 -0.022328 -0.79142 -0.13786 0.084995 -0.19315 1.2555 0.0041198 -2.7418 0.083024 -0.20155 1.8789 0.079497 -0.13951 0.83795 -0.28992 0.035695 0.81729 0.25042 0.06956 0.61749 -0.33027 -0.49086 -0.16137 -0.88796 -0.36941 -0.63618 0.11441 0.087835 -0.7473 -0.1224 -0.50284 -0.28315 0.78754 -0.41615 -0.58013 0.0071536 -1.3391 -0.21096 0.51283 0.4465 -0.0473 -0.47531 -0.101 -0.21284 0.26688 -0.43676 -0.5557 -0.0011168 -0.0016866 -0.23098 0.54587 0.49992
teacher 0.44374 0.67311 -0.51096 0.20882 -0.10662 0.55098 -0.035593 0.25126 -0.32789 1.0762 -0.49637 -0.4298 0.36764 0.57894 -0.25027 -0.41021 0.086998 -0.16843 -0.85764 1.0404 -1.0314 0.095147 0.30729 0.12348 0.22745 -0.52157 -0.72478 -1.0843 0.035966 0.62985 -1.0991 0.67161 0.33797 0.14551 -0.90049 -0.064415 -0.75247 0.21741 0.51594 -0.46291 -0.77598 0.40705 0.1889 -0.43402 0.23202 -0.081453 -0.3882 -0.34444 0.080225 -0.28274 -0.38869 -0.58152 -0.25558 1.0027 -0.11114 -1.5402 -0.16761 -0.26558 0.9325 0.069397 0.96618 0.15449 -0.22905 -0.1761 0.13225 -0.55741 0.9234 -0.04845 0.50202 1.0144 -0.1256 0.30486 0.090808 0.17642 -0.23146 0.68386 0.37269 -0.37316 -0.025728 -1.0279 -0.33142 0.036028 -0.24925 -1.4405 -1.6267 0.082284 -0.080153 -0.50802 0.031885 -0.60546 0.2908 0.036842 0.55328 0.66784 -0.42574 0.53331 0.053644 -0.66522 -0.10012 -0.17729
thief 0.78276 -0.29632 0.93419 -0.52406 0.67018 0.63586 0.45347 -0.017533 0.46177 -0.34511 -0.39208 0.74029 -0.37548 0.53465 -0.24075 1.4606 0.38961 0.095453 -0.20891 0.94459 0.026784 -0.47402 -0.21351 -0.96657 1.123 0.58073 -0.86061 -0.059419 0.28708 -0.04648 -0.17657 -0.084327 -0.071836 -0.0098704 0.69628 0.033108 -0.70914 -0.40115 1.4057 -0.32975 0.07784 0.25698 0.26742 -0.29679 0.19969 0.13739 -0.20307 -0.40669 0.43318 0.27079 -0.51093 0.36686 0.47112 1.0108 -0.55427 -0.038328 -0.67559 0.6149 0.3771 -0.04039 0.10425 0.46589 -1.1474 0.42295 0.36529 -0.087215 0.93048 -0.24273 0.53969 0.19787 -0.66262 -0.47994 -0.26601 0.062117 0.34121 -0.46419 0.35916 -0.1454 -0.23245 -0.18255 0.62575 0.39303 -0.42291 -0.29054 -0.52912 -0.026023 -0.29086 -0.31982 -0.15617 -0.27984 -0.3492 -0.27522 0.49517 0.10059 0.072239 -0.40734 0.37267 -0.18416 -0.048002 -0.75464
trustworthy -0.11979 0.32268 0.6825 0.11997 -0.32007 0.23542 0.69947 -0.72452 0.54543 0.12546 0.23342 -0.02201 0.53165 -0.36455 0.18495 -0.54078 0.78275 -0.22943 0.24047 1.1001 0.080483 0.028577 -0.35736 -0.60281 -0.39151 -0.096151 0.25541 0.51249 -0.06317 0.26681 0.57558 0.21686 -0.039374 -0.43862 1.1764 0.55578 -0.75492 -0.39461 0.35945 0.037762 0.030937 0.70477 0.89982 0.088947 -0.99404 -0.73617 0.33711 -0.036207 -0.27482 -0.69271 -0.2169 -0.18046 0.3225 0.37277 -0.1958 0.28849 0.51704 0.011534 0.25653 -0.63282 -0.19583 -0.59863 -0.88836 0.34743 0.45088 -0.35206 0.58688 0.36245 0.80155 -0.49388 0.15915 0.18233 0.63614 -0.62141 0.53807 -0.036351 0.14168 -0.50462 0.23157 -0.74185 0.61571 1.2443 -0.21922 0.32317 -0.40188 0.19949 0.53249 1.1959 -0.31728 -0.82685 0.70822 0.51208 0.39317 -0.049951 -0.26169 0.35429 -0.32416 -0.90123 -0.54046 0.86968
useful -0.9701 0.46821 -0.26834 0.67043 0.08871 -0.50789 0.11278 -0.46291 0.19719 -0.39083 0.11516 -0.88141 -0.095489 -0.1932 0.65421 0.16757 0.086689 0.053819 0.14595 0.52494 0.064429 -0.15729 -0.095941 -0.62295 -0.27015 -0.16057 -0.10939 0.16812 -0.41207 0.24502 -0.48753 0.35941 -0.56217 -0.52329 0.70499 0.19003 -0.5514 -0.099501 -0.31659 -0.31091 -0.18102 0.22955 0.31253 -0.7237 -0.54198 -0.090034 0.47733 0.032755 -0.52504 -0.48995 0.74818 -0.20234 0.18415 0.68781 -0.068136 -0.99438 0.10891 -0.30967 1.4043 -0.23582 -0.56765 0.82108 -0.27794 0.25087 0.99916 -0.18415 0.62771 -0.13185 0.46809 -0.49638 -0.10746 -0.34309 0.92547 -0.19316 0.44694 0.028827 -0.027924 -0.25467 -0.42717 -0.28876 0.3664 0.40122 -0.8698 -0.49363 -1.6019 0.77631 0.9808 0.35298 -0.78359 -0.35673 -0.55091 0.27107 0.69169 -0.42077 0.029862 -0.046423 -0.34432 -1.0237 0.307 1.0106
visible -0.55752 0.43394 -0.14549 0.096357 0.32685 0.14459 -0.13335 -0.10539 0.65838 -0.13171 0.12392 -0.19585 0.84332 -0.1354 0.86333 -0.27607 0.18119 0.33399 0.63481 -0.55949 0.072572 0.22076 -0.71219 -0.2221 0.32056 0.012011 0.43468 0.2229 0.25321 -0.58341 0.76018 -0.60198 -0.067012 0.4123 0.32038 -0.3101 -0.23846 -0.20427 -0.054248 0.52362 -0.16417 -0.21209 0.13101 0.45077 0.023477 0.13995 0.97476 1.0225 -0.40297 -0.45544 0.65473 -0.37809 -0.005001 0.90655 0.24014 -1.8941 -0.13929 -0.34732 1.3265 -0.28526 -0.14691 1.2864 -0.1803 0.52277 0.62022 0.027571 0.68933 -0.68625 0.21351 -0.36186 0.41947 -0.4849 0.5617 -0.17346 1.069 -0.8512 0.47068 -0.21296 -0.045588 -0.37526 -0.12711 -0.2167 0.017675 0.097518 -0.90924 -0.31906 0.26666 0.41114 0.48023 -0.17374 0.059357 -0.23613 -0.29941 0.28314 -0.5394 0.07482 -0.88117 -0.53754 0.50809 0.19189
wrong 0.29976 0.096764 0.78986 -0.29726 -0.83994 0.12198 -0.22968 0.11562 0.54558 0.08816 0.29916 0.61139 0.065818 0.016323 0.076039 0.11764 -0.4941 0.30019 -0.50541 0.48323 0.75858 0.3074 0.17119 -0.79183 -0.39111 0.36388 -0.28968 -0.3329 0.13149 0.018273 0.54316 0.74766 0.34077 -0.19567 -0.28023 0.25138 -0.97814 0.032817 0.2556 -0.49649 -0.71281 0.42679 0.032038 -0.521 -1.0339 -0.40718 0.13885 0.30654 -1.0586 -0.89805 0.96808 0.1891 0.045624 0.70073 -0.52195 -1.9921 0.35914 0.62048 1.4776 -0.18456 -0.057311 0.68488 -0.15894 -0.0077764 0.56207 -0.40786 0.25042 0.24086 -0.82292 -0.068123 -0.33161 -0.092879 0.21996 -0.30731 0.58824 -0.09236 0.10411 0.27774 -0.43211 0.041362 0.13665 0.25971 -0.97938 -0.4664 -1.5725 -0.59968 0.018044 0.023086 -0.61087 -0.66244 -0.75826 0.04741 0.37288 -0.010702 0.031318 -0.044713 -0.36382 -0.14839 -0.19055 0.14488
